[{"weights": [[-0.14661522209644318, -0.01606607995927334, -0.36736854910850525, -0.20473557710647583, -0.17945711314678192, -0.018061652779579163, -0.19080066680908203, 0.17872141301631927, 0.06073760986328125, -0.27836182713508606, 0.05257747322320938, 0.28273850679397583, -0.041141610592603683, 0.2939314544200897, 0.07242347300052643, 0.3736245036125183, -0.08986248821020126, -0.44712376594543457, 0.14569532871246338, 0.052971985191106796, 0.1951337307691574, -0.2799922227859497, 0.3215632140636444, -0.16003750264644623, 0.22590351104736328, 0.08280526846647263, 0.2103637307882309, 0.19122034311294556, -0.13322989642620087, -0.11245688050985336], [0.013742991723120213, 0.3435421884059906, 0.15586040914058685, 0.16997948288917542, 0.13868680596351624, -0.42976510524749756, -0.1307804435491562, -0.07178371399641037, 0.2535959482192993, 0.11926507204771042, -0.1313568651676178, -0.08436703681945801, -0.12416741251945496, 0.12636785209178925, -0.38608744740486145, -0.22426846623420715, -0.2199084311723709, 0.08223555237054825, 0.09751101583242416, -0.2514761984348297, 0.20879986882209778, 0.2420019656419754, 0.07442988455295563, -0.1707853376865387, 0.16577289998531342, 0.05009398236870766, -0.10548267513513565, -0.2638956904411316, 0.06999359279870987, 0.29044073820114136], [0.1811119019985199, 0.11247856169939041, -0.33203038573265076, 0.08034124970436096, 0.14902670681476593, -0.2574237287044525, 0.11147204041481018, 0.003917349968105555, -0.08324535936117172, 0.1461704969406128, -0.10337625443935394, -0.11203411966562271, -0.1585949808359146, -0.06689997762441635, -0.05821117013692856, 0.151638463139534, 0.32213953137397766, 0.046622272580862045, 0.15977199375629425, 0.010943121276795864, 0.06741655617952347, -0.08866887539625168, 0.04410497471690178, 0.02283591963350773, -0.29278308153152466, 0.05383634939789772, 0.16393788158893585, -0.0745324045419693, -0.0408240482211113, 0.2913435995578766], [0.027522291988134384, -0.2095945179462433, -0.24734658002853394, -0.30650782585144043, 0.19120532274246216, -0.14737150073051453, -0.08571537584066391, 0.08673448115587234, 0.36928462982177734, -0.025870082899928093, 0.03900596499443054, -0.06043132767081261, 0.25091633200645447, -0.03060968965291977, -0.3330189883708954, 0.160737082362175, 0.40911155939102173, -0.34767913818359375, -0.18795615434646606, -0.1299649327993393, -0.29900795221328735, 0.17836882174015045, -0.19171786308288574, 0.1512216180562973, -0.14616137742996216, 0.4048156440258026, -0.09718117117881775, -0.025982705876231194, 0.1451130211353302, 0.18144232034683228], [0.21468868851661682, 0.01252706814557314, 0.18186435103416443, -0.08280973136425018, -0.31435224413871765, 0.26349174976348877, 0.1967712938785553, -0.003511155489832163, -0.16892854869365692, 0.17876513302326202, -0.08263211697340012, 0.16775651276111603, -0.05387316644191742, -0.09529323875904083, 0.14953084290027618, 0.22013647854328156, 0.2561153471469879, 0.13235852122306824, -0.001686916803009808, 0.05719940364360809, 0.13345970213413239, -0.03348711505532265, 0.20784996449947357, -0.22887790203094482, 0.18678487837314606, 0.09157029539346695, -0.24050648510456085, -0.07112611830234528, -0.0890493169426918, 0.24456888437271118], [0.09437734633684158, -0.25690311193466187, 0.20584240555763245, 0.13426156342029572, 0.17786623537540436, 0.008836922235786915, 0.25004398822784424, -0.07590892165899277, -0.15440192818641663, -0.13307081162929535, -0.26657259464263916, -0.16266074776649475, -0.20593950152397156, -0.1103016585111618, 0.04012373834848404, 0.1069033145904541, -0.07699979096651077, -0.23699337244033813, -0.27286550402641296, 0.10297030955553055, 0.272600382566452, -0.35324761271476746, 0.052079517394304276, -0.08193720877170563, 0.18304218351840973, -0.0052127595990896225, -0.10406128317117691, -0.17748020589351654, 0.24169309437274933, -0.204194113612175], [0.2661738395690918, 0.002670686924830079, 0.22571182250976562, -0.23277252912521362, -0.16492556035518646, 0.13618086278438568, 0.3117624819278717, -0.15477974712848663, 0.365872859954834, -0.20008257031440735, -0.23269277811050415, 0.29265567660331726, 0.33260300755500793, -0.10490857809782028, -0.2236495465040207, 0.3186925947666168, 0.05888788774609566, -0.11662184447050095, 0.10661407560110092, 0.1454356461763382, 0.18758738040924072, -0.2632021903991699, 0.04852660745382309, -0.21444162726402283, -0.2816256284713745, -0.08713959157466888, -0.052783168852329254, -0.16105389595031738, -0.2688641846179962, 0.2836894392967224], [-0.12534210085868835, 0.15616609156131744, 0.02277180179953575, -0.32537102699279785, -0.20704659819602966, -0.3185136020183563, 0.09288511425256729, -0.03995661810040474, -0.21408675611019135, -0.030274825170636177, -0.3352983891963959, 0.02651306241750717, 0.10699668526649475, -0.32068711519241333, -0.30316972732543945, -0.08603150397539139, -0.10621349513530731, -0.08388235419988632, 0.19348594546318054, -0.013693212531507015, -0.11155366152524948, 0.07880459725856781, 0.15604190528392792, -0.015345357358455658, 0.28198909759521484, 0.3205881118774414, -0.12902528047561646, 0.2195560187101364, 0.1464022696018219, 0.3887406885623932], [0.0658162459731102, 0.292827308177948, 0.05282164365053177, -0.2671957314014435, 0.15223516523838043, 0.2760114073753357, 0.05221065133810043, 0.05726468190550804, 0.19289666414260864, -0.05370195209980011, -0.01984201930463314, 0.2484855055809021, -0.18782739341259003, -0.05611947551369667, 0.14235542714595795, 0.16083607077598572, -0.0006813814397901297, 0.15505287051200867, -0.259124219417572, 0.10972487926483154, -0.11785643547773361, -0.14477212727069855, -0.2839084565639496, -0.1848134696483612, -0.20300160348415375, 0.10189983993768692, -0.3295017182826996, 0.16663944721221924, -0.03492135927081108, 0.05442534387111664], [-0.013454481959342957, -0.3330296277999878, 0.28056755661964417, -0.16595064103603363, 0.09676884114742279, 0.1423082947731018, -0.11365435272455215, -0.23921819031238556, -0.3129362463951111, 0.2737690806388855, -0.2476268857717514, -0.038768600672483444, 0.13363182544708252, 0.13942469656467438, -0.31296297907829285, -0.26575493812561035, -0.11819753050804138, -0.01811739057302475, -0.21317341923713684, 0.05574837699532509, -0.11198385059833527, 0.08371194452047348, 0.06566403806209564, 0.14625756442546844, 0.18391630053520203, -0.11613397300243378, 0.017389370128512383, 0.2621072828769684, -0.13229821622371674, -0.2536264657974243], [-0.2711319625377655, 0.14008815586566925, -0.3423782289028168, -0.47312018275260925, 0.13825060427188873, 0.033180125057697296, -0.18102337419986725, 0.19224271178245544, -0.034379638731479645, -0.1662943810224533, -0.17343658208847046, 0.30164703726768494, 0.11215729266405106, -0.3257826268672943, 0.11466437578201294, 0.010406344197690487, -0.09446222335100174, 0.19623568654060364, 0.025436298921704292, 0.21597051620483398, -0.08821655809879303, -0.14683957397937775, 0.31869301199913025, -0.4110833406448364, 0.3366958498954773, 0.19483214616775513, -0.04103373736143112, 0.28550630807876587, -0.4302763044834137, -0.12365132570266724], [-0.010543187148869038, -0.1627838909626007, -0.07390493154525757, 0.1203906238079071, -0.2882069945335388, -0.18063972890377045, -0.10942498594522476, 0.20397889614105225, 0.2751823961734772, 0.30204761028289795, -0.04715421423316002, -0.11563436686992645, -0.20981541275978088, 0.15495610237121582, -0.01775442063808441, 0.2047479748725891, 0.23764581978321075, 0.004650552291423082, 0.10295683145523071, -0.1525619924068451, -0.28137990832328796, 0.22339431941509247, -0.23267041146755219, 0.2874130606651306, -0.28366467356681824, -0.2517387568950653, 0.22183428704738617, 0.20243880152702332, -0.07786315679550171, -0.28358399868011475], [-0.22974731028079987, -0.04855632781982422, 0.13368867337703705, 0.08078434318304062, -0.32656043767929077, -0.288893461227417, 0.11472167074680328, 0.2920779585838318, 0.19392289221286774, -0.09157446026802063, 0.05961286276578903, -0.1881767362356186, -0.07440245896577835, -0.08116944134235382, -0.2596852481365204, 0.22494494915008545, -0.27126383781433105, -0.020342163741588593, -0.10758720338344574, -0.03983236104249954, 0.2868131399154663, -0.1915622353553772, 0.36319637298583984, -0.4216153919696808, -0.003393016057088971, 0.3844301700592041, -0.19736479222774506, 0.3250122368335724, 0.05090855062007904, 0.2458077371120453], [-0.2151464819908142, -0.08540111035108566, -0.1953958421945572, -0.4902954399585724, 0.004437420051544905, 0.030141664668917656, 0.06578990072011948, 0.0411616750061512, 0.23918122053146362, -0.10781217366456985, -0.3934670686721802, 0.24835145473480225, -0.08087188750505447, -0.21662165224552155, -0.23697440326213837, 0.3924940824508667, -0.08903728425502777, 0.17353500425815582, -0.24569393694400787, 0.2514735460281372, -0.10319299250841141, 0.32233211398124695, -0.14696729183197021, -0.19525675475597382, 0.1174212396144867, 0.17929761111736298, -0.04475151747465134, 0.12271738797426224, -0.2908863127231598, 0.32382631301879883], [-0.11940458416938782, -0.23170198500156403, -0.022035330533981323, 0.17958389222621918, -0.009972676634788513, 0.09161436557769775, -0.2118576318025589, -0.07592906802892685, -0.15283410251140594, 0.08567802608013153, -0.2732526659965515, 0.20292943716049194, 0.3128774166107178, -0.1870974898338318, 0.3399774134159088, -0.2373635619878769, -0.20625662803649902, -0.23287096619606018, -0.32733115553855896, -0.046664491295814514, -0.12445312738418579, -0.2298896312713623, -0.33230188488960266, -0.18771985173225403, 0.16827522218227386, -0.14069350063800812, -0.16041676700115204, 0.20214344561100006, -0.16989338397979736, 0.0798327848315239], [0.1496264487504959, 0.05434419959783554, 0.38495516777038574, 0.07598574459552765, -0.050257474184036255, 0.3330119252204895, 0.12535680830478668, -0.3154284358024597, 0.08953407406806946, 0.11935754120349884, 0.01741418056190014, 0.22439785301685333, 0.14326269924640656, 0.24098043143749237, -0.17052145302295685, 0.08894535154104233, -0.12908394634723663, -0.16373658180236816, 0.3260958194732666, 0.16435624659061432, 0.22216980159282684, -0.008112769573926926, -0.4087599515914917, 0.041469454765319824, 0.2050991952419281, -0.03385889157652855, 0.054649922996759415, -0.2287812978029251, -0.04361293092370033, 0.19049754738807678], [-0.11412250250577927, 0.16958209872245789, -0.11050475388765335, -0.28394171595573425, -0.33805760741233826, 0.33494022488594055, -0.19551964104175568, -0.19988775253295898, -0.13806526362895966, 0.03143076226115227, -0.05250817909836769, 0.175484299659729, 0.08954128623008728, 0.08562697470188141, 0.05830562859773636, 0.06212860345840454, -0.07108383625745773, -0.06911414861679077, 0.1674327403306961, 0.2421417534351349, 0.2100401371717453, -0.02572121098637581, 0.16023103892803192, 0.11295858025550842, -0.13300904631614685, 0.18161505460739136, 0.13190196454524994, -0.13212278485298157, -0.2786906361579895, 0.09532203525304794], [-0.16257739067077637, -0.17623169720172882, -0.16956588625907898, 0.08127453923225403, -0.2129448652267456, -0.14279398322105408, -0.016557499766349792, -0.2403884381055832, 0.21164323389530182, -0.21413129568099976, 0.1274666041135788, 0.15592804551124573, 0.35469600558280945, -0.13819776475429535, 0.0485367588698864, -0.060828257352113724, -0.22731216251850128, -0.012771892361342907, 0.30470705032348633, 0.07522834837436676, -0.09494556486606598, -0.2377520203590393, 0.19451522827148438, 0.3108673691749573, 0.029402760788798332, 0.2500015199184418, -0.2560611069202423, 0.2116715908050537, -0.254393070936203, 0.24484795331954956], [-0.21292710304260254, 0.2062104046344757, 0.2852509021759033, -0.2699088156223297, -0.23008430004119873, 0.09530171751976013, -0.14291512966156006, -0.03397303819656372, 0.18531562387943268, 0.2980264723300934, -0.11869990080595016, 0.02279757149517536, -0.1362169235944748, 0.15249761939048767, -0.009318830445408821, 0.11802752315998077, -0.09971769154071808, -0.005310626234859228, 0.06568226218223572, 0.18238671123981476, 0.11938056349754333, -0.37172719836235046, -0.06601857393980026, 0.06513993442058563, -0.08294368535280228, 0.2748119831085205, 0.3418467044830322, -0.07893587648868561, -0.00024959672009572387, 0.29337868094444275], [0.08489663153886795, -0.0603802464902401, -0.058936167508363724, -0.008898772299289703, -0.4370197355747223, -0.22440475225448608, -0.01954498700797558, 0.11306176334619522, 0.05206253007054329, -0.012821999378502369, -0.07052227854728699, -0.2600421905517578, -0.18509238958358765, 0.11379855126142502, -0.08928271383047104, -0.08016663789749146, 0.2522895634174347, -0.02456129714846611, 0.23381395637989044, 0.1382400095462799, 0.38799595832824707, 0.09387169033288956, -0.02321149967610836, 0.33257168531417847, -0.3050838112831116, -0.1810486912727356, 0.1701924353837967, 0.0669119656085968, 0.05403442308306694, -0.09236208349466324], [0.09937655180692673, 0.036496471613645554, 0.006637119222432375, 0.07421160489320755, 0.04658244177699089, -0.02600151114165783, 0.39645376801490784, -0.14982184767723083, 0.43417710065841675, -0.201661616563797, -0.07616114616394043, 0.2741226553916931, -0.02663852646946907, -0.13184532523155212, -0.31123170256614685, 0.08560723066329956, 0.17079001665115356, -0.36611002683639526, -0.18936413526535034, 0.03511709347367287, -0.21397273242473602, 0.06196538731455803, 0.17489337921142578, -0.3841860294342041, -0.17835283279418945, 0.12071104347705841, -0.039207227528095245, -0.10455524921417236, -0.126273050904274, -0.005588683299720287], [0.22548885643482208, 0.16594189405441284, 0.08603433519601822, -0.07676085829734802, -0.19795538485050201, 0.11284088343381882, 0.3296702802181244, 0.30468568205833435, 0.17778563499450684, 0.17530514299869537, -0.30514785647392273, 0.4134581387042999, -0.25592878460884094, -0.20808683335781097, -0.3814919888973236, 0.31094369292259216, -0.3170044422149658, -0.14805522561073303, 0.16010265052318573, 0.08958391845226288, 0.22471019625663757, -0.17502756416797638, 0.15593066811561584, -0.39300984144210815, -0.34361857175827026, 0.2194739282131195, -0.015503921546041965, 0.16496089100837708, -0.25785762071609497, 0.23397262394428253], [-0.12361207604408264, 0.2314712256193161, -0.4445439875125885, -0.19242912530899048, -0.30623263120651245, -0.1599399298429489, 0.348306804895401, -0.2964453101158142, 0.1855172961950302, 0.11941801756620407, -0.09253443032503128, 0.15424370765686035, -0.16114772856235504, -0.2565086781978607, -0.1603640466928482, 0.06119838356971741, 0.030457433313131332, -0.1291782110929489, 0.12350677698850632, -0.22820961475372314, -0.2912881374359131, -0.0640023872256279, -0.04153074696660042, -0.2751989960670471, -0.171078160405159, 0.3860769271850586, -0.2124178111553192, 0.028292927891016006, -0.1737814098596573, 0.3151967227458954], [-0.18937334418296814, -0.03312324732542038, -0.24085748195648193, -0.34720906615257263, -0.17987817525863647, -0.4113472104072571, 0.18149249255657196, -0.17878346145153046, 0.27765655517578125, 0.2305762618780136, -0.3284726142883301, 0.2658447027206421, -0.2656145691871643, -0.07510621100664139, 0.13680854439735413, 0.27056533098220825, 0.15540722012519836, -0.3601479232311249, -0.33904147148132324, 0.1843448430299759, -0.15438513457775116, 0.3019685447216034, 0.30815058946609497, 0.013802791945636272, 0.15091854333877563, 0.24401728808879852, -0.018960541114211082, 0.23184016346931458, 0.011357355862855911, 0.06058444827795029], [-0.05550262704491615, 0.36049988865852356, -0.2081347554922104, 0.2689315378665924, 0.195318341255188, -0.0009993946878239512, -0.23604129254817963, 0.32020509243011475, 0.11764371395111084, 0.3768196403980255, -0.028165046125650406, 0.26022160053253174, 0.21508894860744476, 0.011126711033284664, 0.03287981450557709, -0.10406927764415741, -0.06921949237585068, -0.06152290850877762, -0.28971564769744873, -0.1699931025505066, -0.13817265629768372, -0.11413256078958511, 0.21971192955970764, 0.12789174914360046, -0.13995005190372467, -0.21244294941425323, 0.055417854338884354, -0.1829410046339035, -0.27427539229393005, 0.17389512062072754], [0.045639075338840485, -0.2678823173046112, 0.19406047463417053, 0.05554743856191635, 0.08864490687847137, 0.05140883848071098, 0.3574817478656769, 0.00199743895791471, -0.22225236892700195, 0.06673963367938995, -0.10277849435806274, 0.297540545463562, 0.07466432452201843, -0.17160570621490479, 0.2159113734960556, 0.10533376783132553, -0.23695972561836243, 0.010929291136562824, 0.2706372141838074, -0.17546571791172028, 0.03719383850693703, -0.36289477348327637, 0.1009809821844101, -0.08176786452531815, -0.08577453345060349, 0.30338311195373535, 0.1834615021944046, -0.2741242051124573, -0.1061960980296135, 0.0377432256937027], [0.060358986258506775, 0.23129229247570038, 0.004001250956207514, 0.08013568073511124, 0.23287712037563324, -0.3025321066379547, 0.12771330773830414, 0.3180645704269409, -0.16755256056785583, 0.2046121060848236, -0.2558394968509674, 0.03129453957080841, -0.08032359927892685, -0.13930733501911163, 0.24520182609558105, 0.06938968598842621, 0.18926092982292175, 0.04279698058962822, 0.2222762107849121, -0.280843585729599, -0.23799124360084534, -0.12784676253795624, 0.08047424256801605, -0.36580368876457214, 0.01436189841479063, 0.10584071278572083, -0.011394090950489044, -0.2235490381717682, -0.23553211987018585, -0.17332302033901215], [0.3434370160102844, 0.05963888391852379, -0.1256946176290512, -0.1406117081642151, 0.2505539059638977, -0.2781047523021698, 0.08306260406970978, -0.09208120405673981, -0.21719321608543396, 0.3556821644306183, -0.25892817974090576, 0.24659936130046844, -0.21210649609565735, 0.15268850326538086, -0.019510973244905472, -0.08925255388021469, -0.28979745507240295, -0.19343620538711548, -0.322020947933197, 0.14248500764369965, -0.07485082000494003, -0.21632997691631317, -0.05626031383872032, 0.08521103858947754, -0.06282328069210052, -0.06516898423433304, -0.10067515820264816, -0.043345335870981216, -0.0652797743678093, 0.11044251918792725], [0.0006008040509186685, -0.054854992777109146, 0.020171843469142914, 0.16450443863868713, 0.11683908104896545, 0.09885312616825104, -0.13997411727905273, -0.24339862167835236, -0.2812086045742035, 0.03694542869925499, 0.16073089838027954, 0.17378081381320953, -0.2058548778295517, -0.09753081947565079, -0.10863720625638962, 0.27982476353645325, 0.1364729404449463, 0.07672195136547089, -0.15444807708263397, 0.12190283834934235, -0.23072585463523865, -0.19047723710536957, 0.14134429395198822, 0.2471620738506317, -0.26183420419692993, 0.2500697076320648, -0.1636606901884079, 0.17346246540546417, -0.23971329629421234, 0.07624038308858871], [0.05366046726703644, 0.2910653352737427, -0.19300220906734467, 0.0705358237028122, -0.1639992743730545, -0.17448608577251434, -0.26312732696533203, -0.2560870051383972, 0.08263847231864929, 0.3347919285297394, -0.06212465837597847, -0.2424674928188324, 0.30728939175605774, 0.10459940880537033, -0.10143094509840012, 0.3000394105911255, -0.12724421918392181, 0.08083013445138931, 0.27899160981178284, -0.0939885750412941, -0.19037941098213196, 0.15592101216316223, 0.062358032912015915, -0.33778059482574463, 0.2201174646615982, 0.06221400573849678, 0.30743494629859924, 0.2635191082954407, -0.21768876910209656, -0.18085895478725433]], "biases": [0.06672248244285583, 0.0415031835436821, 0.09191258251667023, 0.09885633736848831, 0.12795691192150116, 0.020613715052604675, 0.07827265560626984, 0.019045390188694, 0.04706990346312523, 0.11127705872058868, 0.09636713564395905, 0.08556807786226273, -0.05252230539917946, 0.09710638970136642, 0.13007692992687225, 0.13796621561050415, -0.11487171053886414, 0.06695126742124557, -0.0496111661195755, -0.11622580140829086, 0.01132958009839058, 0.08848535269498825, 0.03947429731488228, 0.1578652262687683, 0.04394220560789108, 0.022185003384947777, 0.05020852014422417, 0.026402320712804794, 0.09924747049808502, -0.0004093642346560955]}, {"weights": [[0.2961891293525696, 0.3054288923740387, -0.14169155061244965, 0.3502197265625, -0.054592471569776535, 0.12913446128368378, -0.3699595630168915, 0.2979680895805359, 0.12006954103708267, -0.20718292891979218, 0.20154273509979248, 0.009020712226629257, 0.24101001024246216, 0.1291617900133133, -0.07595743983983994, 0.03942913934588432, 0.2609085440635681, 0.26808133721351624, 0.001896828063763678, -0.0902082622051239, 0.09761346876621246, 0.05110490322113037, -0.1823638677597046, -0.024291755631566048, 0.1547086238861084], [0.06555159389972687, -0.27970975637435913, -0.11022728681564331, 0.1159522533416748, -0.00750787602737546, -0.06029268726706505, -0.07408254593610764, -0.16920171678066254, 0.3260542154312134, -0.02506427839398384, 0.204329714179039, 0.3284827470779419, 0.0662926658987999, 0.04013902693986893, 0.21635396778583527, 0.039460621774196625, 0.23380643129348755, 0.24739253520965576, -0.18436813354492188, 0.19664695858955383, 0.1532319039106369, -0.14427505433559418, -0.343498557806015, 0.1301349699497223, 0.2529579997062683], [0.15377971529960632, 0.3920881450176239, -0.28629785776138306, -0.04143201559782028, 0.3215251863002777, 0.14558124542236328, 0.0441899374127388, 0.3689177632331848, -0.2029160112142563, 0.4012893736362457, 0.3692397177219391, -0.1252913773059845, -0.21982254087924957, -0.004764747340232134, 0.1266060322523117, -0.059860147535800934, 0.08940854668617249, 0.3741473853588104, 0.013771634548902512, 0.2073509693145752, -0.29438942670822144, -0.22307568788528442, 0.19258899986743927, 0.0047621652483940125, 0.11873093247413635], [-0.01810821332037449, -0.04806609824299812, -0.07993277162313461, -0.22219613194465637, 0.12332895398139954, 0.2732798457145691, 0.15343384444713593, -0.2784035801887512, 0.3311769962310791, 0.21211139857769012, 0.14715121686458588, -0.10440654307603836, 0.3547199070453644, 0.26624998450279236, 0.21423284709453583, 0.26041391491889954, -0.257600873708725, 0.17550525069236755, -0.006292542442679405, 0.25692519545555115, 0.23446419835090637, 0.09052715450525284, 0.31521862745285034, -0.1476050615310669, 0.10273272544145584], [0.1904601752758026, -0.07359826564788818, -0.04507758468389511, 0.004045720677822828, 0.008075657300651073, -0.008311177603900433, -0.09952773153781891, 0.021476522088050842, 0.38519346714019775, 0.2920916974544525, -0.07929039746522903, -0.01196538470685482, -0.06953699141740799, 0.03868497908115387, 0.36488378047943115, -0.033584050834178925, -0.007467594929039478, 0.37937667965888977, 0.08653475344181061, 0.17328841984272003, 0.3404882848262787, -0.13728877902030945, 0.0008761241915635765, 0.13252300024032593, 0.15910844504833221], [0.00042727752588689327, -0.17223794758319855, 0.04056760296225548, -0.275896817445755, 0.034560125321149826, 0.36366337537765503, -0.26276418566703796, 0.36048391461372375, -0.3725368082523346, 0.5107057690620422, -0.10054650902748108, 0.21433104574680328, -0.3151465654373169, -0.2722499668598175, -0.029729105532169342, 0.15653954446315765, 0.10401386022567749, -0.0077434442937374115, -0.1826629638671875, 0.2845620810985565, -0.11286219954490662, 0.09405931830406189, 0.3576611578464508, -0.07049287855625153, 0.26986566185951233], [0.27588045597076416, 0.055905941873788834, 0.18389074504375458, 0.1396283656358719, 0.2854420244693756, -0.29983508586883545, -0.2460089772939682, -0.13853922486305237, -0.15090370178222656, -0.07371028512716293, -0.3006550669670105, 0.13507288694381714, 0.19806396961212158, 0.0693783238530159, 0.339216947555542, -0.23508258163928986, -0.013551619835197926, 0.2031669169664383, 0.41306930780410767, -0.11151594668626785, -0.1921692192554474, 0.16552570462226868, 0.021658122539520264, 0.00024795843637548387, 0.11132410913705826], [0.13174426555633545, -0.1588861644268036, 0.23004500567913055, 0.38217616081237793, -0.027160124853253365, 0.06643333286046982, 0.15630191564559937, -0.013890323229134083, 0.2208261489868164, -0.20296667516231537, -0.21049579977989197, -0.19122813642024994, 0.06313890218734741, 0.145244762301445, 0.028910603374242783, 0.06398817151784897, 0.03300828859210014, 0.19948861002922058, -0.17362156510353088, -0.24847345054149628, 0.12673258781433105, 0.04977307841181755, -0.04814879223704338, 0.23628035187721252, -0.17110739648342133], [0.16211862862110138, 0.28462064266204834, 0.28052762150764465, -0.14360113441944122, 0.07231248915195465, -0.02015291154384613, 0.2817783057689667, 0.3479975461959839, -0.14046931266784668, -0.10758861899375916, 0.08845040947198868, 0.31884196400642395, 0.03612631931900978, -0.02952100709080696, 0.036543767899274826, -0.2707434892654419, 0.1596081703901291, 0.24896135926246643, 0.006619071587920189, 0.3262285590171814, -0.31333428621292114, 0.06280200928449631, 0.357570081949234, 0.3370693325996399, -0.07336632162332535], [-0.2163538783788681, -0.15324996411800385, 0.14719650149345398, 0.11716993898153305, 0.030992165207862854, -0.029557492583990097, -0.21863849461078644, 0.07437125593423843, -0.035861339420080185, 0.07156217843294144, -0.02934093400835991, 0.3698841631412506, -0.12447250634431839, -0.12819787859916687, -0.03641904145479202, 0.12484326213598251, 0.06235571205615997, 0.31786271929740906, 0.13848721981048584, 0.2753448188304901, 0.08853965997695923, 0.1380477398633957, -0.06232783943414688, 0.18126508593559265, -0.19301383197307587], [-0.01802208088338375, -0.12564204633235931, -0.2176072746515274, 0.09395410120487213, -0.2613687515258789, 0.2743076682090759, 0.2551133632659912, 0.22681409120559692, 0.1524358093738556, 0.24665512144565582, 0.24904996156692505, 0.03686395660042763, -0.015991514548659325, -0.16122965514659882, 0.37941592931747437, -0.2773840129375458, 0.25200048089027405, 0.06655316054821014, 0.0735900029540062, 0.34263142943382263, -0.06745988875627518, -0.2713414430618286, 0.004913117736577988, -0.09556449204683304, 0.13697980344295502], [-0.1676899939775467, 0.3133324086666107, -0.06959369778633118, 0.2299676239490509, 0.02886798419058323, -0.28364187479019165, -0.14241208136081696, -0.32840287685394287, -0.04847562313079834, -0.04532991722226143, 0.11201698333024979, 0.3343570828437805, -0.2021043747663498, 0.17120027542114258, 0.13903360068798065, 0.11209660023450851, 0.36132800579071045, 0.43110764026641846, 0.23144319653511047, 0.2148347645998001, 0.3647752106189728, -0.32584822177886963, -0.3092048764228821, 0.35959598422050476, -0.35249093174934387], [0.04060051217675209, 0.09459807723760605, 0.017796048894524574, 0.1618340164422989, 0.18892070651054382, 0.031078273430466652, -0.2571567893028259, 0.17119060456752777, 0.14738692343235016, -0.100179024040699, 0.1657705456018448, -0.3059127628803253, -0.027855198830366135, -0.21658459305763245, 0.18283341825008392, -0.180839404463768, -0.23338240385055542, -0.08389562368392944, -0.11636164039373398, 0.1061655804514885, 0.2912917137145996, 0.2668672502040863, 0.15709149837493896, -0.12820366024971008, -0.11591077595949173], [0.18549489974975586, -0.049071893095970154, 0.06978117674589157, 0.2532026469707489, 0.008015917614102364, -0.052145473659038544, 0.055040523409843445, -0.23451295495033264, 0.2830113470554352, 0.1526070386171341, -0.2463793158531189, -0.3623015284538269, -0.17466604709625244, -0.34226447343826294, 0.34139832854270935, -0.02780398726463318, -0.19034506380558014, 0.24229705333709717, 0.38200217485427856, -0.006373744923621416, -0.1999073624610901, -0.17866359651088715, 0.1554080992937088, -0.14021481573581696, 0.30189815163612366], [0.039144497364759445, -0.0919894129037857, 0.25429022312164307, -0.2828376293182373, -0.271960973739624, 0.3159009516239166, 0.1074417233467102, -0.11042241007089615, -0.21087656915187836, 0.2447759360074997, 0.2790406346321106, -0.41108158230781555, -0.3439033329486847, -0.18981774151325226, -0.26791146397590637, 0.11141337454319, -0.2980537414550781, 0.12574410438537598, 0.3744473457336426, 0.37035098671913147, 0.12304480373859406, 0.18304197490215302, 0.3550357520580292, -0.042885154485702515, -0.006781582720577717], [0.04293736442923546, 0.06049421802163124, -0.07935093343257904, 0.36749571561813354, 0.25323939323425293, 0.22674570977687836, -0.15090788900852203, -0.2993038594722748, 0.06037318706512451, 0.13918496668338776, -0.05966377630829811, 0.40089181065559387, 0.2939992845058441, 0.41401395201683044, -0.14026819169521332, -0.10647941380739212, 0.2859553396701813, 0.011672534979879856, 0.30601766705513, -0.03608119115233421, 0.35110586881637573, 0.20968391001224518, 0.10523366928100586, 0.13171672821044922, 0.0714884102344513], [-0.2659294605255127, 0.3051987886428833, -0.10582409799098969, -0.3864390552043915, -0.24539244174957275, 0.2813091576099396, -0.321037620306015, 0.12890410423278809, -0.15234629809856415, -0.15678784251213074, 0.29085350036621094, -0.13635797798633575, -0.4095136821269989, -0.14688172936439514, -0.015467843040823936, 0.16932407021522522, -0.014233247376978397, -0.09067371487617493, -0.08797772973775864, 0.18110676109790802, 0.04295802488923073, 0.3411618769168854, 0.2942779064178467, 0.22560419142246246, 0.3007635772228241], [0.030416924506425858, -0.193703755736351, -0.15800024569034576, -0.08650466054677963, 0.20699355006217957, 0.33832618594169617, -0.18758590519428253, 0.22806183993816376, 0.009291478432714939, -0.08693449944257736, -0.22542794048786163, 0.21347768604755402, 0.05825570225715637, 0.2621406614780426, -0.2653963565826416, -0.016652388498187065, 0.03307808190584183, -0.22824478149414062, 0.3787526786327362, -0.333094984292984, 0.3579450845718384, -0.17715340852737427, 0.3197932243347168, -0.0734625980257988, -0.07003622502088547], [0.33379077911376953, 0.2817968428134918, 0.1735491305589676, -0.2128683626651764, 0.0970606729388237, -0.1866825371980667, 0.22150471806526184, 0.04668235778808594, 0.0919896587729454, 0.18885672092437744, 0.17614397406578064, -0.21304918825626373, -0.19305789470672607, -0.10614486038684845, -0.19184216856956482, -0.13590720295906067, 0.2427366077899933, 0.04660217463970184, -0.01776450127363205, -0.11471844464540482, -0.11142866313457489, 0.24909910559654236, 0.2413140833377838, 0.07798130810260773, 0.061361514031887054], [-0.3033498227596283, 0.20402772724628448, 0.15695296227931976, -0.2067146897315979, -0.1850435733795166, -0.25028252601623535, 0.031051238998770714, 0.13350287079811096, -0.1575585901737213, -0.25128236413002014, -0.08658793568611145, -0.2389274388551712, -0.20827610790729523, 0.23228631913661957, -0.2949000895023346, -0.3379049301147461, -0.07127761840820312, -0.21289542317390442, 0.25282442569732666, 0.1906885802745819, -0.043112609535455704, -0.014485764317214489, 0.0029643878806382418, 0.11268438398838043, 0.025652458891272545], [0.058736152946949005, 0.4158472418785095, -0.19050104916095734, -0.1997491866350174, -0.15419286489486694, -0.14014774560928345, -0.10149538516998291, -0.07131969928741455, -0.17496120929718018, 0.31501808762550354, 0.24588130414485931, -0.2902747392654419, -0.3299734890460968, -0.3298546373844147, 0.19916920363903046, 0.30694204568862915, -0.31316322088241577, -0.020436303690075874, -0.13865229487419128, 0.11066973209381104, -0.29918795824050903, 0.240489199757576, 0.342949241399765, 0.1933286190032959, 0.4372783899307251], [-0.28205928206443787, 0.327545166015625, 0.391634076833725, 0.30461353063583374, -0.09449194371700287, 0.033250436186790466, -0.2694720923900604, -0.03193243592977524, -0.12707433104515076, -0.09371678531169891, 0.02150542475283146, 0.36561909317970276, -0.15761002898216248, 0.4140285551548004, 0.1679263412952423, 0.17760711908340454, -0.09178394079208374, 0.0320105142891407, 0.321936696767807, -0.06744984537363052, 0.21630489826202393, 0.125295028090477, -0.10606250911951065, -0.162656769156456, 0.10091102868318558], [-0.21093803644180298, -0.31166961789131165, 0.02985326759517193, 0.2296895533800125, 0.3444267213344574, -0.32871535420417786, -0.13014329969882965, 0.18300826847553253, 0.2913309633731842, 0.07085467129945755, -0.22546206414699554, -0.23595282435417175, -0.059364549815654755, 0.32173001766204834, 0.01512053795158863, 0.2596149146556854, -0.01187711488455534, 0.17493394017219543, 0.0807279720902443, -0.27627092599868774, 0.1696782410144806, -0.2782141864299774, -0.03940316662192345, 0.2964218258857727, -0.18320859968662262], [0.053256478160619736, 0.15841631591320038, 0.1227012500166893, -0.30212536454200745, -0.30821481347084045, 0.39479678869247437, -0.3342524766921997, 0.3282822072505951, -0.0772797018289566, 0.19924356043338776, 0.30155497789382935, 0.07696224749088287, -0.38642942905426025, 0.053340181708335876, -0.008435912430286407, 0.16969460248947144, 0.005861313082277775, 0.23632261157035828, 0.38045915961265564, 0.40449875593185425, -0.2920231223106384, 0.20914867520332336, 0.2944917380809784, -0.2064715325832367, 0.1067015752196312], [-0.3228282928466797, -0.10596641153097153, 0.14396904408931732, 0.3579447865486145, 0.13339988887310028, -0.2032918930053711, -0.02616061083972454, -0.30900248885154724, 0.3143314719200134, -0.0847695842385292, 0.30758774280548096, 0.12553022801876068, 0.39882245659828186, 0.21127958595752716, -0.03440116345882416, -0.18514835834503174, -0.20740018784999847, 0.09434057027101517, -0.012039109133183956, 0.27218618988990784, 0.2107132077217102, -0.10958407074213028, -0.0693773701786995, -0.03925664350390434, -0.1604057252407074], [-0.01459912396967411, -0.1834937185049057, 0.2266506850719452, 0.1378919631242752, 0.36868584156036377, 0.22428075969219208, -0.1814117282629013, -0.07899417728185654, 0.3482890725135803, -0.2585347592830658, -0.005405554547905922, 0.38374075293540955, 0.2968672215938568, 0.20899507403373718, 0.23998166620731354, 0.14351488649845123, 0.01012137159705162, 0.1520981788635254, -0.044803716242313385, -0.05708077922463417, -0.013396894559264183, -0.24645522236824036, -0.3143244981765747, 0.3444587290287018, 0.1630774438381195], [0.1053287535905838, -0.13014423847198486, 0.09876210242509842, 0.0015211846912279725, -0.04630177840590477, 0.19218629598617554, -0.08781524002552032, -0.12601298093795776, 0.21556538343429565, 0.26870980858802795, 0.05980365723371506, -0.23780107498168945, 0.25239816308021545, -0.09682998806238174, 0.2882934510707855, 0.0410316064953804, -0.011826585978269577, 0.08111447840929031, -0.010885588824748993, -0.03276439383625984, 0.13196595013141632, 0.22514985501766205, 0.17636993527412415, -0.2643451988697052, 0.2470768690109253], [0.15552400052547455, -0.2927761673927307, 0.004303242079913616, 0.11321049928665161, 0.25831422209739685, 0.026735465973615646, -0.026364581659436226, -0.09481704235076904, 0.10324425995349884, -0.32782816886901855, -0.24596843123435974, 0.26260000467300415, -0.20190753042697906, -0.09523910284042358, 0.1067795380949974, -0.23625409603118896, 0.4376872181892395, -0.12431788444519043, 0.36480414867401123, -0.2773280441761017, 0.11439385265111923, 0.17549335956573486, 0.2883331775665283, 0.27759504318237305, -0.10797519236803055], [-0.2583204209804535, 0.18939156830310822, -0.15430676937103271, -0.0803450271487236, 0.33887040615081787, 0.2423742711544037, -0.11964449286460876, 0.2072625756263733, -0.009196466766297817, 0.2672775089740753, 0.30106353759765625, 0.04692189767956734, 0.27623024582862854, -0.08819682896137238, -0.16805750131607056, -0.19020792841911316, -0.29233384132385254, 0.2579011619091034, 0.13390138745307922, -0.13361431658267975, -0.034053146839141846, -0.1792844980955124, 0.35515716671943665, -0.2127586007118225, -0.09951052069664001], [-0.28515034914016724, -0.1750728189945221, 0.01854279264807701, 0.11118429899215698, 0.4139650762081146, 0.23611915111541748, -0.24532628059387207, 0.11752202361822128, 0.32460346817970276, 0.0935254916548729, -0.14201103150844574, 0.2631951570510864, 0.2926163673400879, 0.3655354678630829, -0.1834714263677597, 0.12467875331640244, 0.004713331814855337, 0.1449384093284607, -0.09763403236865997, -0.05127830058336258, -0.13643218576908112, 0.20656073093414307, -0.1650002896785736, 0.15501368045806885, -0.20809835195541382]], "biases": [0.010487854480743408, 0.046826377511024475, 0.14856484532356262, 0.11353473365306854, 0.17474676668643951, 0.06147989258170128, -0.05929205194115639, 0.06132228299975395, 0.0763879120349884, 0.12834452092647552, 0.03849199414253235, 0.04077526926994324, 0.031464800238609314, 0.09986452013254166, 0.0670388713479042, -0.06904767453670502, 0.07105039805173874, 0.15772409737110138, 0.16177679598331451, 0.05574194714426994, 0.06084779277443886, 0.053520165383815765, 0.0671018436551094, 0.019421890377998352, 0.08563152700662613]}, {"weights": [[-0.3167499303817749, 0.19028297066688538, -0.07095638662576675, -0.21332207322120667, 0.1289062798023224, 0.42777788639068604, 0.14412011206150055, -0.2324640154838562, -0.4309641122817993, 0.4803503453731537, -0.17203083634376526, -0.10751921683549881, 0.07946515083312988, -0.1433078944683075, 0.2702942192554474, 0.26859620213508606, -0.20504805445671082, -0.2784585654735565, 0.17055733501911163, 0.0992225855588913], [0.03695074841380119, 0.18544991314411163, -0.1359371393918991, -0.0897660106420517, 0.21085482835769653, 0.42032763361930847, -0.10551395267248154, -0.02305578999221325, -0.2658384144306183, 0.45636674761772156, -0.3475838899612427, -0.3150854706764221, 0.4635755121707916, 0.08793100714683533, 0.16168297827243805, -0.06418809294700623, -0.16325604915618896, -0.39293569326400757, 0.09429918974637985, 0.11385567486286163], [0.06082919239997864, -0.03010573238134384, 0.33926713466644287, 0.02407810091972351, -0.370930016040802, 0.08494120836257935, 0.22305388748645782, 0.04593457281589508, 0.017830247059464455, -0.12136715650558472, -0.05152549222111702, -0.05638890713453293, 0.33613869547843933, 0.34196344017982483, 0.05624160170555115, 0.21533021330833435, 0.1896863430738449, -0.13267801702022552, 0.16054561734199524, 0.29103314876556396], [0.3082391321659088, -0.30706021189689636, -0.03441118821501732, -0.22860458493232727, 0.19908347725868225, -0.4223141074180603, 0.2741797864437103, 0.4590769112110138, 0.4373966157436371, -0.036885712295770645, 0.19110968708992004, -0.07697555422782898, -0.3221297860145569, 0.0829329788684845, 0.3137704133987427, 0.20759999752044678, 0.564032256603241, 0.3361375629901886, -0.11721979081630707, 0.36465463042259216], [-0.3140174448490143, 0.08629073947668076, 0.37261858582496643, 0.025239555165171623, 0.19217152893543243, -0.04742809012532234, -0.20032534003257751, 0.38131701946258545, 0.3757230341434479, 0.2374102771282196, 0.2938856780529022, -0.32848888635635376, 0.17064914107322693, 0.4565855860710144, 0.2571353614330292, 0.4202691614627838, -0.07019712030887604, -0.1731843203306198, 0.26991668343544006, 0.05063864216208458], [0.2945800721645355, 0.3851332664489746, 0.3204061985015869, 0.07135580480098724, 0.20403200387954712, 0.08754611760377884, 0.1767202764749527, 0.3728453516960144, -0.2405761182308197, 0.3028663396835327, 0.03358153998851776, 0.25826001167297363, 0.2924608290195465, -0.2336767315864563, -0.21048907935619354, -0.12065073102712631, -0.22855964303016663, 0.16234226524829865, 0.2169954776763916, -0.0725565031170845], [0.2368793487548828, -0.3321303129196167, 0.31533083319664, 0.1416109800338745, -0.053651049733161926, -0.3167199492454529, -0.346059650182724, -0.03709498420357704, 0.2675741910934448, 0.10283765196800232, -0.2626923620700836, -0.27808722853660583, 0.08360500633716583, -0.09713131189346313, 0.25328853726387024, 0.1074356809258461, 0.04616014286875725, 0.08519021421670914, -0.12160072475671768, -0.2681238055229187], [0.14337746798992157, 0.39714694023132324, -0.12334892153739929, 0.11011894792318344, 0.005575036630034447, 0.01857616938650608, 0.3218078911304474, 0.22137722373008728, 0.06349771469831467, 0.34639066457748413, 0.04308748617768288, -0.38179731369018555, -0.10937155038118362, 0.055334895849227905, -0.35238897800445557, 0.29800140857696533, 0.30529487133026123, -0.2235160768032074, 0.12331634014844894, -0.2634243667125702], [-0.06579597294330597, 0.15260529518127441, -0.19703976809978485, -0.11647453159093857, -0.29024818539619446, 0.07928787916898727, 0.11659246683120728, 0.35525044798851013, 0.06771218776702881, -0.32711729407310486, -0.09138039499521255, -0.13459500670433044, 0.3050828278064728, 0.4191036522388458, -0.24749042093753815, -0.055428750813007355, 0.4640401303768158, -0.0532262958586216, -0.054127346724271774, -0.06959019601345062], [-0.268314391374588, 0.2643035054206848, -0.06213100999593735, -0.36100125312805176, 0.011739778332412243, 0.15362481772899628, 0.22741906344890594, 0.268435537815094, 0.228873148560524, 0.3479204773902893, -0.29135578870773315, 0.021028798073530197, 0.4901675283908844, -0.02186320163309574, -0.3056291341781616, 0.03146712854504585, -0.32428592443466187, 0.0929659754037857, 0.4415068030357361, 0.21870553493499756], [-0.27636557817459106, 0.038222093135118484, 0.025052007287740707, -0.2930336594581604, -0.16723035275936127, 0.183761864900589, -0.11909297853708267, -0.2695600986480713, -0.25381675362586975, 0.16288095712661743, -0.24061040580272675, -0.2570263743400574, -0.10555171221494675, 0.14960451424121857, -0.04069499298930168, 0.5153653621673584, 0.3096420168876648, -0.27280235290527344, 0.11367484927177429, -0.2715925872325897], [-0.0990239754319191, -0.3075178861618042, 0.4131168723106384, 0.2078019678592682, -0.367841511964798, -0.23742665350437164, 0.09515208750963211, 0.38498473167419434, 0.3750389516353607, -0.23352555930614471, -0.05520543456077576, -0.021764038130640984, -0.11549731343984604, 0.48221808671951294, 0.17464880645275116, -0.15150809288024902, 0.19365958869457245, 0.07345609366893768, -0.30727672576904297, 0.16020730137825012], [-0.23865851759910583, -0.0145323621109128, 0.07014909386634827, -0.15791958570480347, 0.22467011213302612, -0.3504469096660614, 0.16877049207687378, 0.2765151858329773, -0.06659454852342606, -0.3226839005947113, 0.02643580362200737, 0.3189846873283386, -0.12282241135835648, 0.15220390260219574, -0.16949790716171265, -0.08938711136579514, 0.16527192294597626, 0.34595048427581787, -0.3238169848918915, 0.034961067140102386], [-0.37402793765068054, 0.0639747753739357, 0.06647589802742004, -0.10432707518339157, 0.010892613790929317, -0.09384962171316147, 0.05795465037226677, -0.0509507991373539, 0.41226673126220703, -0.20334762334823608, 0.30484840273857117, 0.26532429456710815, -0.32110047340393066, 0.3236801028251648, -0.19686858355998993, 0.08337017148733139, 0.18283626437187195, 0.43475133180618286, -0.36985352635383606, 0.31304287910461426], [-0.028001708909869194, -0.26507464051246643, 0.011711611412465572, 0.02951769158244133, -0.0015200040070340037, -0.1744682788848877, 0.44073617458343506, 0.30073311924934387, 0.2270311862230301, -0.1277271807193756, 0.32241666316986084, -0.0547272227704525, 0.23489733040332794, -0.036601465195417404, -0.10985888540744781, 0.22809380292892456, -0.3036772310733795, 0.3704955577850342, 0.177542582154274, 0.16518884897232056], [-0.16867636144161224, -0.34870031476020813, -0.09478907287120819, 0.20659619569778442, -0.1613699495792389, -0.238827183842659, 0.21873155236244202, -0.054001715034246445, 0.23395973443984985, 0.34165456891059875, -0.09812861680984497, -0.02687765471637249, 0.12062191218137741, -0.2841701805591583, 0.05497840419411659, -0.1578006148338318, 0.27964168787002563, -0.19632169604301453, 0.29665884375572205, 0.2803708016872406], [-0.23851148784160614, -0.34364622831344604, 0.13616177439689636, -0.1049942672252655, 0.15206222236156464, -0.12302286922931671, 0.09187905490398407, 0.24154527485370636, 0.30193892121315, 0.19759754836559296, -0.009672695770859718, -0.1288968324661255, 0.03304778039455414, 0.06618881970643997, 0.2855631113052368, 0.2584882974624634, -0.0839170515537262, 0.37424883246421814, -0.10282383114099503, -0.25994181632995605], [0.18651814758777618, 0.32201167941093445, 0.30314478278160095, -0.07929228246212006, 0.20354831218719482, 0.18210913240909576, 0.3051457405090332, 0.22805221378803253, 0.33638739585876465, 0.38225415349006653, -0.043717823922634125, -0.0037718876264989376, 0.3133798837661743, 0.14608153700828552, 0.37230944633483887, 0.22981472313404083, 0.3709958791732788, 0.06769610196352005, 0.29862555861473083, 0.1606542468070984], [-0.24320119619369507, -0.28722938895225525, 0.18799397349357605, -0.11707356572151184, -0.25978904962539673, 0.07727959752082825, 0.20293322205543518, 0.4661111533641815, -0.36487504839897156, -0.008360927924513817, 0.27186161279678345, 0.05547299236059189, -0.16547901928424835, 0.2066640704870224, -0.18146252632141113, 0.40510138869285583, 0.04604269936680794, 0.36262649297714233, 0.37579891085624695, 0.15255089104175568], [-0.01381008978933096, 0.33479467034339905, 0.053491946309804916, 0.03366555646061897, 0.08818385004997253, 0.32878372073173523, 0.21483133733272552, 0.19573566317558289, 0.1745481640100479, 0.01866668276488781, 0.24047483503818512, 0.12362615764141083, -0.180729940533638, -0.18252144753932953, -0.1464807242155075, 0.07936651259660721, -0.07853781431913376, 0.03035076893866062, 0.36862611770629883, -0.12349918484687805], [0.325381338596344, -0.3799353539943695, 0.41075846552848816, -0.19439366459846497, 0.1798386126756668, -0.10002301633358002, 0.4220464527606964, 0.43197083473205566, 0.3301345109939575, -0.2616197466850281, 0.33502036333084106, -0.2184809297323227, 0.2744990587234497, 0.31528037786483765, 0.1811027079820633, 0.13803695142269135, -0.10579262673854828, 0.42888277769088745, -0.2244926542043686, 0.12623727321624756], [-0.21543455123901367, 0.381111741065979, 0.1124081090092659, -0.12333980202674866, 0.08030363917350769, -0.04318799450993538, 0.1454266905784607, 0.40949276089668274, -0.014729768969118595, 0.11058759689331055, 0.12436012178659439, 0.3157983720302582, 0.13623280823230743, -0.32115620374679565, 0.16514699161052704, 0.37976545095443726, -0.31111568212509155, -0.07719484716653824, 0.4398908019065857, -0.1674662083387375], [-0.22287900745868683, 0.1993778645992279, -0.20245453715324402, 0.06128567457199097, -0.3805088698863983, 0.24170544743537903, -0.16720184683799744, 0.05452556908130646, -0.394594669342041, 0.23207131028175354, -0.14816585183143616, -0.15905213356018066, 0.4239252507686615, -0.2507997751235962, 0.20998841524124146, 0.09536513686180115, -0.021605605259537697, -0.39172810316085815, 0.03147250413894653, -0.20161037147045135], [-0.2013300508260727, 0.21747002005577087, 0.08173418790102005, -0.18897050619125366, -0.1872599571943283, -0.1355254352092743, -0.23271693289279938, -0.11128701269626617, 0.10820551961660385, 0.13928475975990295, 0.1092037558555603, -0.3317750096321106, 0.10393797606229782, 0.3861224055290222, 0.11656298488378525, -0.22512604296207428, 0.02791820652782917, 0.09863843768835068, -0.2714022397994995, 0.07931817322969437], [-0.006962366867810488, -0.1907045841217041, 0.00810046587139368, 0.16239438951015472, -0.05473744124174118, 0.14106203615665436, 0.2281380444765091, -0.10146068781614304, -0.06767772883176804, 0.45625898241996765, 0.049379508942365646, -0.016340449452400208, 0.15800009667873383, -0.06162066385149956, -0.3284490704536438, 0.15050317347049713, 0.14098100364208221, 0.29814600944519043, 0.39892762899398804, -0.3932833969593048]], "biases": [-0.015597673133015633, 0.046024058014154434, 0.07107260078191757, -0.024860497564077377, -0.041187386959791183, 0.12267007678747177, 0.11510441452264786, 0.13918283581733704, -0.03052551858127117, 0.09663568437099457, 0.05280432105064392, -0.022243617102503777, 0.12966783344745636, 0.05114714056253433, 0.002431775676086545, 0.14888271689414978, 0.05962236970663071, 0.07056910544633865, 0.07554490864276886, 0.05676945298910141]}, {"weights": [[0.39639216661453247, 0.30089446902275085, -0.408794641494751, 0.3379283845424652, -0.4227975606918335, -0.3910282552242279, -0.23803775012493134, -0.3576122522354126, -0.3887420892715454, 0.05891965329647064, -0.26586639881134033, 0.05773245170712471, -0.24356761574745178, -0.010689524002373219, -0.007719201501458883], [0.06276407837867737, -0.40743985772132874, -0.07261314243078232, -0.21334420144557953, 0.10750333219766617, 0.3869956135749817, 0.35670205950737, 2.9793932299071457e-06, 0.20371201634407043, 0.013704967685043812, -0.08626789599657059, 0.30930864810943604, 0.4310290515422821, 0.14606685936450958, -0.09413089603185654], [0.0530719980597496, 0.169700026512146, -0.032121725380420685, -0.267762690782547, 0.16723951697349548, 0.13616891205310822, 0.1650800108909607, 0.14085637032985687, -0.22653479874134064, -0.22163768112659454, -0.35082972049713135, 0.08558102697134018, 0.33729270100593567, 0.5370270609855652, -0.26997390389442444], [0.05535634607076645, 0.21432514488697052, 0.15098188817501068, -0.1755330115556717, -0.23817458748817444, 0.2635703980922699, -0.29746386408805847, 0.3724479079246521, -0.11884026974439621, -0.24328812956809998, -0.35507673025131226, 0.22873839735984802, -0.25061163306236267, -0.10216916352510452, 0.2562735378742218], [0.21659880876541138, 0.24273119866847992, 0.2672436237335205, 0.18182456493377686, -0.4037035405635834, -0.3559578061103821, -0.16179116070270538, -0.1145784929394722, 0.3385383188724518, 0.04997801408171654, -0.383863627910614, -0.09972933679819107, -0.13049334287643433, 0.10015081614255905, 0.3747040033340454], [0.09864319115877151, -0.0293390154838562, -0.18155188858509064, -0.31384333968162537, -0.3109797537326813, -0.24983568489551544, 0.24762295186519623, -0.03162625804543495, 0.2678549289703369, 0.27966997027397156, 0.05171329900622368, 0.34247514605522156, 0.4280330240726471, -0.49369004368782043, -0.3117028474807739], [-0.11986983567476273, 0.38494357466697693, 0.307206928730011, -0.0973997637629509, 0.1975763738155365, -0.04126816987991333, -0.04247124120593071, -0.02355862781405449, 0.1132439598441124, 0.2055424153804779, -0.09854590147733688, 0.41196969151496887, -0.13836349546909332, -0.1782672256231308, 0.36780014634132385], [0.09089086949825287, 0.08423399180173874, -0.3926723599433899, 0.16589002311229706, 0.2653490900993347, -0.27821871638298035, 0.17861352860927582, 0.23570382595062256, 0.08768545836210251, 0.26208481192588806, 0.1032426506280899, -0.05416189134120941, 0.01602754555642605, 0.55619215965271, 0.22741688787937164], [-0.3218708336353302, 0.2212047278881073, -0.28138741850852966, -0.03396653011441231, -0.17321628332138062, 0.35631898045539856, -0.2857321798801422, 0.47525879740715027, -0.2153981477022171, -0.3528594672679901, -0.36897411942481995, 0.07756123691797256, -0.593815267086029, 0.1682591438293457, 0.22626528143882751], [-0.1677907258272171, -0.14082017540931702, 0.38918575644493103, 0.29326438903808594, 0.35377901792526245, -0.1535995751619339, 0.49293607473373413, -0.1123800054192543, -0.006172063294798136, -0.00023145379964262247, 0.2464604526758194, 0.11583521962165833, 0.23403961956501007, 0.011979276314377785, -0.44101396203041077], [0.2946871519088745, 0.37911322712898254, 0.16076546907424927, 0.42723336815834045, -0.1975020319223404, -0.06634510308504105, -0.14715851843357086, 0.29055216908454895, -0.46594852209091187, -0.1979779750108719, 0.14446617662906647, 0.12398121505975723, -0.15288548171520233, -0.07296805828809738, -0.027276573702692986], [0.11846615374088287, -0.10389259457588196, -0.15713772177696228, -0.38569825887680054, -0.1848178654909134, 0.3009864389896393, 0.10564938932657242, 0.40614816546440125, 0.10617368668317795, -0.31299668550491333, -0.20572631061077118, -0.2734285295009613, 0.013304349966347218, -0.3443630635738373, -0.2740519344806671], [-0.21941059827804565, 0.19111359119415283, -0.3208654522895813, 0.19399762153625488, -0.41081884503364563, -0.361022412776947, 0.34892839193344116, -0.10954122245311737, -0.13586851954460144, 0.019338242709636688, -0.10104446113109589, 0.40823647379875183, 0.15831652283668518, -0.3942101001739502, 0.10168039053678513], [-0.12366548925638199, 0.22663186490535736, -0.12593285739421844, 0.4801679253578186, -0.2507745623588562, -0.33445480465888977, -0.22351761162281036, 0.252816766500473, 0.02923203445971012, -0.23836319148540497, -0.04490847513079643, -0.2150404304265976, -0.2660454511642456, 0.4650540053844452, 0.1334509700536728], [0.3816165328025818, 0.07415688037872314, -0.32338857650756836, 0.3751260042190552, -0.07770917564630508, 0.1320595145225525, 0.0174255333840847, 0.03062898851931095, 0.14918646216392517, -0.23598091304302216, 0.3340791165828705, -0.4157051742076874, 0.3261786997318268, -0.2622882127761841, 0.46283143758773804], [-0.2599705159664154, 0.14660769701004028, -0.36815062165260315, 0.357214093208313, 0.10234349220991135, -0.29100099205970764, 0.5752421021461487, -0.2991565465927124, 0.10385986417531967, 0.2257753610610962, 0.2250521332025528, -0.09197365492582321, 0.40980738401412964, 0.33517879247665405, -0.07241013646125793], [0.21969686448574066, 0.4634513854980469, 0.09635812789201736, 0.46480756998062134, 0.37427979707717896, -0.3070509731769562, 0.215189591050148, -0.018082430586218834, -0.07854611426591873, -0.09474573284387589, -0.2735885977745056, -0.2597995698451996, 0.05442466959357262, 0.0606745183467865, -0.12124112248420715], [-0.026966216042637825, 0.4494052529335022, -0.0824451595544815, 0.542442262172699, -0.3914054036140442, 0.0732722207903862, -0.1329902559518814, 0.4161607623100281, 0.000490461359731853, -0.03449658304452896, -0.079448401927948, 0.035275235772132874, -0.2967558205127716, 0.2292504757642746, 0.4451131224632263], [0.05296475440263748, -0.15976914763450623, -0.21465854346752167, -0.2297050952911377, -0.3656112551689148, 0.023758213967084885, 0.041468843817710876, -0.1280464082956314, 0.24822385609149933, 0.4915224611759186, -0.3738877475261688, 0.4784033000469208, -0.1265992820262909, -0.3043702244758606, -0.1324152648448944], [0.2821921110153198, 0.3620513379573822, 0.16280700266361237, 0.5443097352981567, -0.3061160147190094, -0.23912769556045532, -0.32081547379493713, 0.30466338992118835, -0.11492001265287399, 0.20128826797008514, 0.3434341549873352, -0.3138529062271118, -0.13654039800167084, -0.02473827823996544, 0.5283714532852173]], "biases": [-0.025305496528744698, 0.07286496460437775, -0.016165100038051605, 0.030729027464985847, -0.03425033390522003, -0.013444599695503712, 0.14618079364299774, 0.0708976462483406, 0.006331691052764654, 0.08842919766902924, -0.021328559145331383, 0.11845467239618301, 0.15443040430545807, 0.09945358335971832, 0.01795525662600994]}, {"weights": [[-0.055307697504758835, 0.47292202711105347, 0.45304930210113525, 0.22646352648735046, -0.41261613368988037, -0.21332958340644836, 0.11297836154699326, 0.37978583574295044, 0.21235154569149017, -0.39284151792526245], [0.2760392427444458, 0.059217020869255066, -0.12976160645484924, -0.5216124653816223, 0.12218764424324036, 0.46718376874923706, -0.1760982871055603, 0.5451043844223022, -0.45714735984802246, -0.2905954420566559], [0.2068524956703186, 0.05148628354072571, -0.479512482881546, -0.2821507155895233, -0.06593542546033859, -0.16964371502399445, 0.08502291887998581, -0.31450513005256653, -0.1191861480474472, -0.2744215428829193], [-0.030113155022263527, 0.15600064396858215, -0.1462601125240326, -0.16628612577915192, -0.2895153760910034, 0.595750093460083, 0.14604906737804413, -0.018957745283842087, -0.39620885252952576, -0.02862265519797802], [-0.330987811088562, -0.42584851384162903, 0.0908283144235611, 0.38811758160591125, 0.4601019620895386, 0.19345210492610931, 0.19092333316802979, -0.3640865385532379, 0.1678631454706192, -0.2145383208990097], [-0.2319573163986206, 0.3595006465911865, 0.4743717312812805, -0.44098180532455444, -0.07061323523521423, -0.010893570259213448, 0.4146677851676941, -0.15465332567691803, 0.325387567281723, 0.24669428169727325], [0.46055904030799866, 0.598612904548645, 0.6152122020721436, 0.20885862410068512, 0.36381685733795166, -0.167657732963562, -0.3328862190246582, 0.16392579674720764, 0.3907363712787628, 0.5494219660758972], [0.3552405834197998, 5.3955889598000795e-05, -0.43430572748184204, -0.004382648039609194, 0.13059408962726593, 0.5098898410797119, -0.41271424293518066, 0.05497650429606438, 0.17344577610492706, -0.3069750666618347], [-0.2633661925792694, 0.6340736150741577, -0.262596994638443, 0.04899461194872856, 0.5801979303359985, -0.4356503188610077, 0.32134193181991577, 0.3139815330505371, 0.09077086299657822, -0.1869620531797409], [-0.2810596823692322, 0.13106600940227509, 0.5684468150138855, 0.1820523887872696, 0.5533933639526367, -0.4926011562347412, -0.17785362899303436, 0.2878762483596802, -0.29286545515060425, 0.5857766270637512], [0.45274847745895386, -0.12509982287883759, 0.08227570354938507, 0.14819127321243286, -0.06741897016763687, 0.21609936654567719, 0.011059826239943504, -0.10858946293592453, 0.49606987833976746, 0.26768389344215393], [0.40865954756736755, -0.032904040068387985, 0.38737234473228455, 0.3609658181667328, 0.49486908316612244, 0.0957317054271698, -0.15560965240001678, -0.5031874179840088, -0.22357791662216187, 0.45966169238090515], [0.06216062605381012, 0.18480153381824493, 0.5365338921546936, 0.45817556977272034, 0.800606906414032, -0.31661707162857056, -0.1603074073791504, 0.04638475552201271, -0.14046317338943481, 0.8815009593963623], [0.5320837497711182, -0.3477848768234253, -0.07278463989496231, -0.23700183629989624, -0.05525435507297516, 0.19453056156635284, -0.24192626774311066, 0.3350104093551636, 0.3157641291618347, 0.1779029369354248], [0.09366285055875778, -0.6078275442123413, -0.5677990317344666, -0.03553468734025955, -0.47174176573753357, 0.4627968668937683, 0.36984002590179443, -0.23439137637615204, 0.4554481506347656, -0.4547221064567566]], "biases": [0.04937198758125305, 0.11952397227287292, 0.1314544528722763, -0.05156326666474342, 0.0922945961356163, 0.04792534559965134, -0.007682784926146269, -0.015035714954137802, -0.03145258128643036, 0.08392640948295593]}, {"weights": [[-0.30266574025154114, 0.5602945685386658, 0.5970001816749573, 0.6687647700309753, 0.011683166027069092], [0.13664019107818604, 0.6837821006774902, 0.05426624044775963, -0.21835260093212128, 0.2532784342765808], [0.3381258249282837, 0.6577852368354797, -0.17241214215755463, 0.17905229330062866, -0.5938841104507446], [-0.22705797851085663, 0.2500758171081543, 0.2497231513261795, 0.0650603398680687, -0.4588389992713928], [-0.27957436442375183, 0.6189714670181274, 0.017970003187656403, -0.24182596802711487, -0.25224655866622925], [-0.09018995612859726, -0.41522490978240967, 0.4181916117668152, 0.8058122396469116, -0.4920557737350464], [-0.2080564796924591, -0.3111685514450073, 0.4436320960521698, -0.028565265238285065, -0.27339354157447815], [-0.18626920878887177, -0.005375519394874573, 0.335997998714447, 0.2127324342727661, -0.49129247665405273], [-0.060142796486616135, -0.3855130970478058, 0.26890236139297485, -0.5892841219902039, -0.10087716579437256], [0.014730436727404594, 0.5045683979988098, -0.45388609170913696, -0.3116677403450012, 0.29218006134033203]], "biases": [-0.01791619323194027, 0.09145695716142654, -0.01996529847383499, -0.008439382538199425, 0.0]}, {"weights": [[0.8756482601165771], [-0.5076486468315125], [0.5748736262321472], [0.6563387513160706], [0.17886567115783691]], "biases": [-0.07330076396465302]}]